digraph Tree {
node [shape=box, style="filled, rounded", color="black", fontname=helvetica] ;
edge [fontname=helvetica] ;
0 [label="c1 <= -0.23\ngini = 0.5\nsamples = 2076\nvalue = [1637, 1674]\nclass = 1", fillcolor="#fbfdfe"] ;
1 [label="c1 <= -0.72\ngini = 0.46\nsamples = 1386\nvalue = [772, 1431]\nclass = 1", fillcolor="#a4d2f3"] ;
0 -> 1 [labeldistance=2.5, labelangle=45, headlabel="True"] ;
2 [label="c7 <= -0.03\ngini = 0.47\nsamples = 112\nvalue = [108, 66]\nclass = 0", fillcolor="#f5ceb2"] ;
1 -> 2 ;
3 [label="c6 <= -0.01\ngini = 0.3\nsamples = 69\nvalue = [91, 21]\nclass = 0", fillcolor="#eb9e67"] ;
2 -> 3 ;
4 [label="c6 <= -0.11\ngini = 0.41\nsamples = 46\nvalue = [52, 21]\nclass = 0", fillcolor="#f0b489"] ;
3 -> 4 ;
5 [label="gini = 0.0\nsamples = 17\nvalue = [27, 0]\nclass = 0", fillcolor="#e58139"] ;
4 -> 5 ;
6 [label="c2 <= 0.05\ngini = 0.5\nsamples = 29\nvalue = [25, 21]\nclass = 0", fillcolor="#fbebdf"] ;
4 -> 6 ;
7 [label="c5 <= 0.16\ngini = 0.35\nsamples = 18\nvalue = [21, 6]\nclass = 0", fillcolor="#eca572"] ;
6 -> 7 ;
8 [label="gini = 0.0\nsamples = 15\nvalue = [21, 0]\nclass = 0", fillcolor="#e58139"] ;
7 -> 8 ;
9 [label="gini = 0.0\nsamples = 3\nvalue = [0, 6]\nclass = 1", fillcolor="#399de5"] ;
7 -> 9 ;
10 [label="c1 <= -0.75\ngini = 0.33\nsamples = 11\nvalue = [4, 15]\nclass = 1", fillcolor="#6eb7ec"] ;
6 -> 10 ;
11 [label="c6 <= -0.03\ngini = 0.12\nsamples = 9\nvalue = [1, 15]\nclass = 1", fillcolor="#46a4e7"] ;
10 -> 11 ;
12 [label="gini = 0.0\nsamples = 8\nvalue = [0, 15]\nclass = 1", fillcolor="#399de5"] ;
11 -> 12 ;
13 [label="gini = 0.0\nsamples = 1\nvalue = [1, 0]\nclass = 0", fillcolor="#e58139"] ;
11 -> 13 ;
14 [label="gini = 0.0\nsamples = 2\nvalue = [3, 0]\nclass = 0", fillcolor="#e58139"] ;
10 -> 14 ;
15 [label="gini = 0.0\nsamples = 23\nvalue = [39, 0]\nclass = 0", fillcolor="#e58139"] ;
3 -> 15 ;
16 [label="c8 <= 0.12\ngini = 0.4\nsamples = 43\nvalue = [17, 45]\nclass = 1", fillcolor="#84c2ef"] ;
2 -> 16 ;
17 [label="c1 <= -0.76\ngini = 0.3\nsamples = 37\nvalue = [10, 45]\nclass = 1", fillcolor="#65b3eb"] ;
16 -> 17 ;
18 [label="c5 <= 0.19\ngini = 0.12\nsamples = 31\nvalue = [3, 45]\nclass = 1", fillcolor="#46a4e7"] ;
17 -> 18 ;
19 [label="c5 <= 0.06\ngini = 0.22\nsamples = 18\nvalue = [3, 21]\nclass = 1", fillcolor="#55abe9"] ;
18 -> 19 ;
20 [label="gini = 0.0\nsamples = 15\nvalue = [0, 21]\nclass = 1", fillcolor="#399de5"] ;
19 -> 20 ;
21 [label="gini = 0.0\nsamples = 3\nvalue = [3, 0]\nclass = 0", fillcolor="#e58139"] ;
19 -> 21 ;
22 [label="gini = 0.0\nsamples = 13\nvalue = [0, 24]\nclass = 1", fillcolor="#399de5"] ;
18 -> 22 ;
23 [label="gini = 0.0\nsamples = 6\nvalue = [7, 0]\nclass = 0", fillcolor="#e58139"] ;
17 -> 23 ;
24 [label="gini = 0.0\nsamples = 6\nvalue = [7, 0]\nclass = 0", fillcolor="#e58139"] ;
16 -> 24 ;
25 [label="c3 <= -0.24\ngini = 0.44\nsamples = 1274\nvalue = [664, 1365]\nclass = 1", fillcolor="#99cdf2"] ;
1 -> 25 ;
26 [label="c6 <= -0.18\ngini = 0.17\nsamples = 675\nvalue = [99, 985]\nclass = 1", fillcolor="#4da7e8"] ;
25 -> 26 ;
27 [label="c8 <= 0.09\ngini = 0.31\nsamples = 14\nvalue = [17, 4]\nclass = 0", fillcolor="#eb9f68"] ;
26 -> 27 ;
28 [label="gini = 0.0\nsamples = 8\nvalue = [14, 0]\nclass = 0", fillcolor="#e58139"] ;
27 -> 28 ;
29 [label="c4 <= -0.03\ngini = 0.49\nsamples = 6\nvalue = [3, 4]\nclass = 1", fillcolor="#cee6f8"] ;
27 -> 29 ;
30 [label="gini = 0.0\nsamples = 3\nvalue = [0, 4]\nclass = 1", fillcolor="#399de5"] ;
29 -> 30 ;
31 [label="gini = 0.0\nsamples = 3\nvalue = [3, 0]\nclass = 0", fillcolor="#e58139"] ;
29 -> 31 ;
32 [label="c6 <= 0.31\ngini = 0.14\nsamples = 661\nvalue = [82, 981]\nclass = 1", fillcolor="#4aa5e7"] ;
26 -> 32 ;
33 [label="c2 <= -0.22\ngini = 0.14\nsamples = 659\nvalue = [80, 981]\nclass = 1", fillcolor="#49a5e7"] ;
32 -> 33 ;
34 [label="c6 <= -0.15\ngini = 0.24\nsamples = 224\nvalue = [51, 312]\nclass = 1", fillcolor="#59ade9"] ;
33 -> 34 ;
35 [label="gini = 0.0\nsamples = 4\nvalue = [5, 0]\nclass = 0", fillcolor="#e58139"] ;
34 -> 35 ;
36 [label="c4 <= 0.02\ngini = 0.22\nsamples = 220\nvalue = [46, 312]\nclass = 1", fillcolor="#56abe9"] ;
34 -> 36 ;
37 [label="c3 <= -0.36\ngini = 0.15\nsamples = 208\nvalue = [27, 312]\nclass = 1", fillcolor="#4aa5e7"] ;
36 -> 37 ;
38 [label="c2 <= -0.24\ngini = 0.09\nsamples = 187\nvalue = [14, 291]\nclass = 1", fillcolor="#43a2e6"] ;
37 -> 38 ;
39 [label="c5 <= 0.04\ngini = 0.05\nsamples = 180\nvalue = [8, 284]\nclass = 1", fillcolor="#3fa0e6"] ;
38 -> 39 ;
40 [label="gini = 0.0\nsamples = 1\nvalue = [1, 0]\nclass = 0", fillcolor="#e58139"] ;
39 -> 40 ;
41 [label="c4 <= -0.28\ngini = 0.05\nsamples = 179\nvalue = [7, 284]\nclass = 1", fillcolor="#3e9fe6"] ;
39 -> 41 ;
42 [label="c3 <= -0.44\ngini = 0.01\nsamples = 87\nvalue = [1, 148]\nclass = 1", fillcolor="#3a9ee5"] ;
41 -> 42 ;
43 [label="gini = 0.0\nsamples = 83\nvalue = [0, 144]\nclass = 1", fillcolor="#399de5"] ;
42 -> 43 ;
44 [label="c7 <= -0.01\ngini = 0.32\nsamples = 4\nvalue = [1, 4]\nclass = 1", fillcolor="#6ab6ec"] ;
42 -> 44 ;
45 [label="gini = 0.0\nsamples = 1\nvalue = [1, 0]\nclass = 0", fillcolor="#e58139"] ;
44 -> 45 ;
46 [label="gini = 0.0\nsamples = 3\nvalue = [0, 4]\nclass = 1", fillcolor="#399de5"] ;
44 -> 46 ;
47 [label="c4 <= -0.28\ngini = 0.08\nsamples = 92\nvalue = [6, 136]\nclass = 1", fillcolor="#42a1e6"] ;
41 -> 47 ;
48 [label="gini = 0.0\nsamples = 1\nvalue = [3, 0]\nclass = 0", fillcolor="#e58139"] ;
47 -> 48 ;
49 [label="c3 <= -0.54\ngini = 0.04\nsamples = 91\nvalue = [3, 136]\nclass = 1", fillcolor="#3d9fe6"] ;
47 -> 49 ;
50 [label="gini = 0.0\nsamples = 71\nvalue = [0, 107]\nclass = 1", fillcolor="#399de5"] ;
49 -> 50 ;
51 [label="c6 <= -0.02\ngini = 0.17\nsamples = 20\nvalue = [3, 29]\nclass = 1", fillcolor="#4da7e8"] ;
49 -> 51 ;
52 [label="gini = 0.0\nsamples = 18\nvalue = [0, 29]\nclass = 1", fillcolor="#399de5"] ;
51 -> 52 ;
53 [label="gini = 0.0\nsamples = 2\nvalue = [3, 0]\nclass = 0", fillcolor="#e58139"] ;
51 -> 53 ;
54 [label="c8 <= 0.05\ngini = 0.5\nsamples = 7\nvalue = [6, 7]\nclass = 1", fillcolor="#e3f1fb"] ;
38 -> 54 ;
55 [label="gini = 0.0\nsamples = 4\nvalue = [0, 7]\nclass = 1", fillcolor="#399de5"] ;
54 -> 55 ;
56 [label="gini = 0.0\nsamples = 3\nvalue = [6, 0]\nclass = 0", fillcolor="#e58139"] ;
54 -> 56 ;
57 [label="c4 <= -0.01\ngini = 0.47\nsamples = 21\nvalue = [13, 21]\nclass = 1", fillcolor="#b4daf5"] ;
37 -> 57 ;
58 [label="c1 <= -0.69\ngini = 0.47\nsamples = 10\nvalue = [12, 7]\nclass = 0", fillcolor="#f4caac"] ;
57 -> 58 ;
59 [label="gini = 0.0\nsamples = 5\nvalue = [0, 7]\nclass = 1", fillcolor="#399de5"] ;
58 -> 59 ;
60 [label="gini = 0.0\nsamples = 5\nvalue = [12, 0]\nclass = 0", fillcolor="#e58139"] ;
58 -> 60 ;
61 [label="c3 <= -0.25\ngini = 0.12\nsamples = 11\nvalue = [1, 14]\nclass = 1", fillcolor="#47a4e7"] ;
57 -> 61 ;
62 [label="gini = 0.0\nsamples = 1\nvalue = [1, 0]\nclass = 0", fillcolor="#e58139"] ;
61 -> 62 ;
63 [label="gini = 0.0\nsamples = 10\nvalue = [0, 14]\nclass = 1", fillcolor="#399de5"] ;
61 -> 63 ;
64 [label="gini = 0.0\nsamples = 12\nvalue = [19, 0]\nclass = 0", fillcolor="#e58139"] ;
36 -> 64 ;
65 [label="c6 <= 0.1\ngini = 0.08\nsamples = 435\nvalue = [29, 669]\nclass = 1", fillcolor="#42a1e6"] ;
33 -> 65 ;
66 [label="c8 <= -0.13\ngini = 0.05\nsamples = 403\nvalue = [16, 632]\nclass = 1", fillcolor="#3e9fe6"] ;
65 -> 66 ;
67 [label="gini = 0.0\nsamples = 1\nvalue = [1, 0]\nclass = 0", fillcolor="#e58139"] ;
66 -> 67 ;
68 [label="c7 <= -0.12\ngini = 0.05\nsamples = 402\nvalue = [15, 632]\nclass = 1", fillcolor="#3e9fe6"] ;
66 -> 68 ;
69 [label="gini = 0.0\nsamples = 1\nvalue = [1, 0]\nclass = 0", fillcolor="#e58139"] ;
68 -> 69 ;
70 [label="c8 <= 0.17\ngini = 0.04\nsamples = 401\nvalue = [14, 632]\nclass = 1", fillcolor="#3d9fe6"] ;
68 -> 70 ;
71 [label="c3 <= -0.26\ngini = 0.04\nsamples = 400\nvalue = [13, 632]\nclass = 1", fillcolor="#3d9fe6"] ;
70 -> 71 ;
72 [label="c1 <= -0.58\ngini = 0.04\nsamples = 399\nvalue = [12, 632]\nclass = 1", fillcolor="#3d9fe5"] ;
71 -> 72 ;
73 [label="gini = 0.0\nsamples = 178\nvalue = [0, 283]\nclass = 1", fillcolor="#399de5"] ;
72 -> 73 ;
74 [label="c1 <= -0.58\ngini = 0.06\nsamples = 221\nvalue = [12, 349]\nclass = 1", fillcolor="#40a0e6"] ;
72 -> 74 ;
75 [label="gini = 0.0\nsamples = 1\nvalue = [2, 0]\nclass = 0", fillcolor="#e58139"] ;
74 -> 75 ;
76 [label="c6 <= -0.17\ngini = 0.05\nsamples = 220\nvalue = [10, 349]\nclass = 1", fillcolor="#3fa0e6"] ;
74 -> 76 ;
77 [label="c5 <= 0.07\ngini = 0.32\nsamples = 10\nvalue = [3, 12]\nclass = 1", fillcolor="#6ab6ec"] ;
76 -> 77 ;
78 [label="gini = 0.0\nsamples = 2\nvalue = [3, 0]\nclass = 0", fillcolor="#e58139"] ;
77 -> 78 ;
79 [label="gini = 0.0\nsamples = 8\nvalue = [0, 12]\nclass = 1", fillcolor="#399de5"] ;
77 -> 79 ;
80 [label="c5 <= 0.2\ngini = 0.04\nsamples = 210\nvalue = [7, 337]\nclass = 1", fillcolor="#3d9fe6"] ;
76 -> 80 ;
81 [label="c2 <= 0.17\ngini = 0.01\nsamples = 102\nvalue = [1, 170]\nclass = 1", fillcolor="#3a9ee5"] ;
80 -> 81 ;
82 [label="c2 <= 0.12\ngini = 0.03\nsamples = 45\nvalue = [1, 72]\nclass = 1", fillcolor="#3c9ee5"] ;
81 -> 82 ;
83 [label="gini = 0.0\nsamples = 44\nvalue = [0, 72]\nclass = 1", fillcolor="#399de5"] ;
82 -> 83 ;
84 [label="gini = 0.0\nsamples = 1\nvalue = [1, 0]\nclass = 0", fillcolor="#e58139"] ;
82 -> 84 ;
85 [label="gini = 0.0\nsamples = 57\nvalue = [0, 98]\nclass = 1", fillcolor="#399de5"] ;
81 -> 85 ;
86 [label="c8 <= 0.13\ngini = 0.07\nsamples = 108\nvalue = [6, 167]\nclass = 1", fillcolor="#40a1e6"] ;
80 -> 86 ;
87 [label="c2 <= 0.22\ngini = 0.03\nsamples = 106\nvalue = [3, 167]\nclass = 1", fillcolor="#3d9fe5"] ;
86 -> 87 ;
88 [label="gini = 0.0\nsamples = 69\nvalue = [0, 112]\nclass = 1", fillcolor="#399de5"] ;
87 -> 88 ;
89 [label="c1 <= -0.36\ngini = 0.1\nsamples = 37\nvalue = [3, 55]\nclass = 1", fillcolor="#44a2e6"] ;
87 -> 89 ;
90 [label="c3 <= -0.47\ngini = 0.04\nsamples = 35\nvalue = [1, 55]\nclass = 1", fillcolor="#3d9fe5"] ;
89 -> 90 ;
91 [label="gini = 0.0\nsamples = 34\nvalue = [0, 55]\nclass = 1", fillcolor="#399de5"] ;
90 -> 91 ;
92 [label="gini = 0.0\nsamples = 1\nvalue = [1, 0]\nclass = 0", fillcolor="#e58139"] ;
90 -> 92 ;
93 [label="gini = 0.0\nsamples = 2\nvalue = [2, 0]\nclass = 0", fillcolor="#e58139"] ;
89 -> 93 ;
94 [label="gini = 0.0\nsamples = 2\nvalue = [3, 0]\nclass = 0", fillcolor="#e58139"] ;
86 -> 94 ;
95 [label="gini = 0.0\nsamples = 1\nvalue = [1, 0]\nclass = 0", fillcolor="#e58139"] ;
71 -> 95 ;
96 [label="gini = 0.0\nsamples = 1\nvalue = [1, 0]\nclass = 0", fillcolor="#e58139"] ;
70 -> 96 ;
97 [label="c5 <= 0.11\ngini = 0.38\nsamples = 32\nvalue = [13, 37]\nclass = 1", fillcolor="#7fbfee"] ;
65 -> 97 ;
98 [label="c5 <= -0.05\ngini = 0.5\nsamples = 12\nvalue = [9, 10]\nclass = 1", fillcolor="#ebf5fc"] ;
97 -> 98 ;
99 [label="gini = 0.0\nsamples = 8\nvalue = [0, 10]\nclass = 1", fillcolor="#399de5"] ;
98 -> 99 ;
100 [label="gini = 0.0\nsamples = 4\nvalue = [9, 0]\nclass = 0", fillcolor="#e58139"] ;
98 -> 100 ;
101 [label="c6 <= 0.22\ngini = 0.22\nsamples = 20\nvalue = [4, 27]\nclass = 1", fillcolor="#56ace9"] ;
97 -> 101 ;
102 [label="c5 <= 0.27\ngini = 0.13\nsamples = 19\nvalue = [2, 27]\nclass = 1", fillcolor="#48a4e7"] ;
101 -> 102 ;
103 [label="c4 <= 0.52\ngini = 0.07\nsamples = 18\nvalue = [1, 27]\nclass = 1", fillcolor="#40a1e6"] ;
102 -> 103 ;
104 [label="gini = 0.0\nsamples = 11\nvalue = [0, 17]\nclass = 1", fillcolor="#399de5"] ;
103 -> 104 ;
105 [label="c4 <= 0.55\ngini = 0.17\nsamples = 7\nvalue = [1, 10]\nclass = 1", fillcolor="#4da7e8"] ;
103 -> 105 ;
106 [label="gini = 0.0\nsamples = 1\nvalue = [1, 0]\nclass = 0", fillcolor="#e58139"] ;
105 -> 106 ;
107 [label="gini = 0.0\nsamples = 6\nvalue = [0, 10]\nclass = 1", fillcolor="#399de5"] ;
105 -> 107 ;
108 [label="gini = 0.0\nsamples = 1\nvalue = [1, 0]\nclass = 0", fillcolor="#e58139"] ;
102 -> 108 ;
109 [label="gini = 0.0\nsamples = 1\nvalue = [2, 0]\nclass = 0", fillcolor="#e58139"] ;
101 -> 109 ;
110 [label="gini = 0.0\nsamples = 2\nvalue = [2, 0]\nclass = 0", fillcolor="#e58139"] ;
32 -> 110 ;
111 [label="c2 <= 0.14\ngini = 0.48\nsamples = 599\nvalue = [565, 380]\nclass = 0", fillcolor="#f6d6be"] ;
25 -> 111 ;
112 [label="c4 <= -0.1\ngini = 0.39\nsamples = 307\nvalue = [357, 126]\nclass = 0", fillcolor="#eead7f"] ;
111 -> 112 ;
113 [label="c5 <= -0.09\ngini = 0.5\nsamples = 67\nvalue = [50, 59]\nclass = 1", fillcolor="#e1f0fb"] ;
112 -> 113 ;
114 [label="gini = 0.0\nsamples = 15\nvalue = [25, 0]\nclass = 0", fillcolor="#e58139"] ;
113 -> 114 ;
115 [label="c5 <= 0.15\ngini = 0.42\nsamples = 52\nvalue = [25, 59]\nclass = 1", fillcolor="#8dc7f0"] ;
113 -> 115 ;
116 [label="c6 <= -0.14\ngini = 0.36\nsamples = 47\nvalue = [18, 59]\nclass = 1", fillcolor="#75bbed"] ;
115 -> 116 ;
117 [label="gini = 0.0\nsamples = 3\nvalue = [6, 0]\nclass = 0", fillcolor="#e58139"] ;
116 -> 117 ;
118 [label="c8 <= -0.05\ngini = 0.28\nsamples = 44\nvalue = [12, 59]\nclass = 1", fillcolor="#61b1ea"] ;
116 -> 118 ;
119 [label="gini = 0.0\nsamples = 3\nvalue = [5, 0]\nclass = 0", fillcolor="#e58139"] ;
118 -> 119 ;
120 [label="c2 <= 0.01\ngini = 0.19\nsamples = 41\nvalue = [7, 59]\nclass = 1", fillcolor="#50a9e8"] ;
118 -> 120 ;
121 [label="c1 <= -0.7\ngini = 0.12\nsamples = 39\nvalue = [4, 59]\nclass = 1", fillcolor="#46a4e7"] ;
120 -> 121 ;
122 [label="gini = 0.0\nsamples = 2\nvalue = [3, 0]\nclass = 0", fillcolor="#e58139"] ;
121 -> 122 ;
123 [label="c2 <= -0.15\ngini = 0.03\nsamples = 37\nvalue = [1, 59]\nclass = 1", fillcolor="#3c9fe5"] ;
121 -> 123 ;
124 [label="c6 <= 0.08\ngini = 0.17\nsamples = 6\nvalue = [1, 10]\nclass = 1", fillcolor="#4da7e8"] ;
123 -> 124 ;
125 [label="gini = 0.0\nsamples = 5\nvalue = [0, 10]\nclass = 1", fillcolor="#399de5"] ;
124 -> 125 ;
126 [label="gini = 0.0\nsamples = 1\nvalue = [1, 0]\nclass = 0", fillcolor="#e58139"] ;
124 -> 126 ;
127 [label="gini = 0.0\nsamples = 31\nvalue = [0, 49]\nclass = 1", fillcolor="#399de5"] ;
123 -> 127 ;
128 [label="gini = 0.0\nsamples = 2\nvalue = [3, 0]\nclass = 0", fillcolor="#e58139"] ;
120 -> 128 ;
129 [label="gini = 0.0\nsamples = 5\nvalue = [7, 0]\nclass = 0", fillcolor="#e58139"] ;
115 -> 129 ;
130 [label="c6 <= 0.0\ngini = 0.29\nsamples = 240\nvalue = [307, 67]\nclass = 0", fillcolor="#eb9c64"] ;
112 -> 130 ;
131 [label="c2 <= -0.31\ngini = 0.43\nsamples = 129\nvalue = [145, 67]\nclass = 0", fillcolor="#f1bb94"] ;
130 -> 131 ;
132 [label="c6 <= -0.03\ngini = 0.44\nsamples = 43\nvalue = [25, 50]\nclass = 1", fillcolor="#9ccef2"] ;
131 -> 132 ;
133 [label="c8 <= -0.04\ngini = 0.49\nsamples = 20\nvalue = [17, 13]\nclass = 0", fillcolor="#f9e1d0"] ;
132 -> 133 ;
134 [label="gini = 0.0\nsamples = 7\nvalue = [0, 9]\nclass = 1", fillcolor="#399de5"] ;
133 -> 134 ;
135 [label="c3 <= 0.09\ngini = 0.31\nsamples = 13\nvalue = [17, 4]\nclass = 0", fillcolor="#eb9f68"] ;
133 -> 135 ;
136 [label="c1 <= -0.65\ngini = 0.5\nsamples = 4\nvalue = [4, 4]\nclass = 0", fillcolor="#ffffff"] ;
135 -> 136 ;
137 [label="gini = 0.0\nsamples = 1\nvalue = [3, 0]\nclass = 0", fillcolor="#e58139"] ;
136 -> 137 ;
138 [label="c5 <= -0.1\ngini = 0.32\nsamples = 3\nvalue = [1, 4]\nclass = 1", fillcolor="#6ab6ec"] ;
136 -> 138 ;
139 [label="gini = 0.0\nsamples = 2\nvalue = [0, 4]\nclass = 1", fillcolor="#399de5"] ;
138 -> 139 ;
140 [label="gini = 0.0\nsamples = 1\nvalue = [1, 0]\nclass = 0", fillcolor="#e58139"] ;
138 -> 140 ;
141 [label="gini = 0.0\nsamples = 9\nvalue = [13, 0]\nclass = 0", fillcolor="#e58139"] ;
135 -> 141 ;
142 [label="c4 <= 0.14\ngini = 0.29\nsamples = 23\nvalue = [8, 37]\nclass = 1", fillcolor="#64b2eb"] ;
132 -> 142 ;
143 [label="c8 <= -0.09\ngini = 0.18\nsamples = 20\nvalue = [4, 37]\nclass = 1", fillcolor="#4ea8e8"] ;
142 -> 143 ;
144 [label="gini = 0.0\nsamples = 1\nvalue = [3, 0]\nclass = 0", fillcolor="#e58139"] ;
143 -> 144 ;
145 [label="c4 <= 0.05\ngini = 0.05\nsamples = 19\nvalue = [1, 37]\nclass = 1", fillcolor="#3ea0e6"] ;
143 -> 145 ;
146 [label="c2 <= -0.37\ngini = 0.15\nsamples = 6\nvalue = [1, 11]\nclass = 1", fillcolor="#4ba6e7"] ;
145 -> 146 ;
147 [label="gini = 0.0\nsamples = 5\nvalue = [0, 11]\nclass = 1", fillcolor="#399de5"] ;
146 -> 147 ;
148 [label="gini = 0.0\nsamples = 1\nvalue = [1, 0]\nclass = 0", fillcolor="#e58139"] ;
146 -> 148 ;
149 [label="gini = 0.0\nsamples = 13\nvalue = [0, 26]\nclass = 1", fillcolor="#399de5"] ;
145 -> 149 ;
150 [label="gini = 0.0\nsamples = 3\nvalue = [4, 0]\nclass = 0", fillcolor="#e58139"] ;
142 -> 150 ;
151 [label="c6 <= -0.23\ngini = 0.22\nsamples = 86\nvalue = [120, 17]\nclass = 0", fillcolor="#e99355"] ;
131 -> 151 ;
152 [label="c4 <= 0.0\ngini = 0.19\nsamples = 12\nvalue = [2, 17]\nclass = 1", fillcolor="#50a9e8"] ;
151 -> 152 ;
153 [label="c1 <= -0.67\ngini = 0.1\nsamples = 11\nvalue = [1, 17]\nclass = 1", fillcolor="#45a3e7"] ;
152 -> 153 ;
154 [label="gini = 0.0\nsamples = 7\nvalue = [0, 14]\nclass = 1", fillcolor="#399de5"] ;
153 -> 154 ;
155 [label="c3 <= 0.0\ngini = 0.38\nsamples = 4\nvalue = [1, 3]\nclass = 1", fillcolor="#7bbeee"] ;
153 -> 155 ;
156 [label="gini = 0.0\nsamples = 3\nvalue = [0, 3]\nclass = 1", fillcolor="#399de5"] ;
155 -> 156 ;
157 [label="gini = 0.0\nsamples = 1\nvalue = [1, 0]\nclass = 0", fillcolor="#e58139"] ;
155 -> 157 ;
158 [label="gini = 0.0\nsamples = 1\nvalue = [1, 0]\nclass = 0", fillcolor="#e58139"] ;
152 -> 158 ;
159 [label="gini = 0.0\nsamples = 74\nvalue = [118, 0]\nclass = 0", fillcolor="#e58139"] ;
151 -> 159 ;
160 [label="gini = 0.0\nsamples = 111\nvalue = [162, 0]\nclass = 0", fillcolor="#e58139"] ;
130 -> 160 ;
161 [label="c6 <= -0.13\ngini = 0.5\nsamples = 292\nvalue = [208, 254]\nclass = 1", fillcolor="#dbedfa"] ;
111 -> 161 ;
162 [label="c6 <= -0.3\ngini = 0.29\nsamples = 62\nvalue = [17, 78]\nclass = 1", fillcolor="#64b2eb"] ;
161 -> 162 ;
163 [label="gini = 0.0\nsamples = 2\nvalue = [2, 0]\nclass = 0", fillcolor="#e58139"] ;
162 -> 163 ;
164 [label="c8 <= 0.0\ngini = 0.27\nsamples = 60\nvalue = [15, 78]\nclass = 1", fillcolor="#5fb0ea"] ;
162 -> 164 ;
165 [label="c8 <= -0.03\ngini = 0.39\nsamples = 33\nvalue = [14, 38]\nclass = 1", fillcolor="#82c1ef"] ;
164 -> 165 ;
166 [label="c2 <= 0.23\ngini = 0.2\nsamples = 23\nvalue = [4, 32]\nclass = 1", fillcolor="#52a9e8"] ;
165 -> 166 ;
167 [label="gini = 0.0\nsamples = 20\nvalue = [0, 32]\nclass = 1", fillcolor="#399de5"] ;
166 -> 167 ;
168 [label="gini = 0.0\nsamples = 3\nvalue = [4, 0]\nclass = 0", fillcolor="#e58139"] ;
166 -> 168 ;
169 [label="c1 <= -0.65\ngini = 0.47\nsamples = 10\nvalue = [10, 6]\nclass = 0", fillcolor="#f5cdb0"] ;
165 -> 169 ;
170 [label="gini = 0.0\nsamples = 2\nvalue = [4, 0]\nclass = 0", fillcolor="#e58139"] ;
169 -> 170 ;
171 [label="c6 <= -0.19\ngini = 0.5\nsamples = 8\nvalue = [6, 6]\nclass = 0", fillcolor="#ffffff"] ;
169 -> 171 ;
172 [label="gini = 0.0\nsamples = 2\nvalue = [4, 0]\nclass = 0", fillcolor="#e58139"] ;
171 -> 172 ;
173 [label="c2 <= 0.21\ngini = 0.38\nsamples = 6\nvalue = [2, 6]\nclass = 1", fillcolor="#7bbeee"] ;
171 -> 173 ;
174 [label="gini = 0.0\nsamples = 4\nvalue = [0, 6]\nclass = 1", fillcolor="#399de5"] ;
173 -> 174 ;
175 [label="gini = 0.0\nsamples = 2\nvalue = [2, 0]\nclass = 0", fillcolor="#e58139"] ;
173 -> 175 ;
176 [label="c6 <= -0.18\ngini = 0.05\nsamples = 27\nvalue = [1, 40]\nclass = 1", fillcolor="#3e9fe6"] ;
164 -> 176 ;
177 [label="c3 <= 0.03\ngini = 0.18\nsamples = 6\nvalue = [1, 9]\nclass = 1", fillcolor="#4fa8e8"] ;
176 -> 177 ;
178 [label="gini = 0.0\nsamples = 1\nvalue = [1, 0]\nclass = 0", fillcolor="#e58139"] ;
177 -> 178 ;
179 [label="gini = 0.0\nsamples = 5\nvalue = [0, 9]\nclass = 1", fillcolor="#399de5"] ;
177 -> 179 ;
180 [label="gini = 0.0\nsamples = 21\nvalue = [0, 31]\nclass = 1", fillcolor="#399de5"] ;
176 -> 180 ;
181 [label="c3 <= 0.18\ngini = 0.5\nsamples = 230\nvalue = [191, 176]\nclass = 0", fillcolor="#fdf5ef"] ;
161 -> 181 ;
182 [label="c5 <= 0.06\ngini = 0.49\nsamples = 174\nvalue = [120, 150]\nclass = 1", fillcolor="#d7ebfa"] ;
181 -> 182 ;
183 [label="c2 <= 0.2\ngini = 0.48\nsamples = 159\nvalue = [97, 150]\nclass = 1", fillcolor="#b9dcf6"] ;
182 -> 183 ;
184 [label="c4 <= 0.17\ngini = 0.14\nsamples = 63\nvalue = [7, 89]\nclass = 1", fillcolor="#49a5e7"] ;
183 -> 184 ;
185 [label="c2 <= 0.19\ngini = 0.06\nsamples = 62\nvalue = [3, 89]\nclass = 1", fillcolor="#40a0e6"] ;
184 -> 185 ;
186 [label="c6 <= -0.08\ngini = 0.11\nsamples = 32\nvalue = [3, 47]\nclass = 1", fillcolor="#46a3e7"] ;
185 -> 186 ;
187 [label="gini = 0.0\nsamples = 1\nvalue = [1, 0]\nclass = 0", fillcolor="#e58139"] ;
186 -> 187 ;
188 [label="c3 <= 0.08\ngini = 0.08\nsamples = 31\nvalue = [2, 47]\nclass = 1", fillcolor="#41a1e6"] ;
186 -> 188 ;
189 [label="gini = 0.0\nsamples = 21\nvalue = [0, 32]\nclass = 1", fillcolor="#399de5"] ;
188 -> 189 ;
190 [label="c4 <= 0.14\ngini = 0.21\nsamples = 10\nvalue = [2, 15]\nclass = 1", fillcolor="#53aae8"] ;
188 -> 190 ;
191 [label="c5 <= -0.1\ngini = 0.12\nsamples = 9\nvalue = [1, 15]\nclass = 1", fillcolor="#46a4e7"] ;
190 -> 191 ;
192 [label="gini = 0.0\nsamples = 1\nvalue = [1, 0]\nclass = 0", fillcolor="#e58139"] ;
191 -> 192 ;
193 [label="gini = 0.0\nsamples = 8\nvalue = [0, 15]\nclass = 1", fillcolor="#399de5"] ;
191 -> 193 ;
194 [label="gini = 0.0\nsamples = 1\nvalue = [1, 0]\nclass = 0", fillcolor="#e58139"] ;
190 -> 194 ;
195 [label="gini = 0.0\nsamples = 30\nvalue = [0, 42]\nclass = 1", fillcolor="#399de5"] ;
185 -> 195 ;
196 [label="gini = 0.0\nsamples = 1\nvalue = [4, 0]\nclass = 0", fillcolor="#e58139"] ;
184 -> 196 ;
197 [label="c3 <= -0.04\ngini = 0.48\nsamples = 96\nvalue = [90, 61]\nclass = 0", fillcolor="#f7d6bf"] ;
183 -> 197 ;
198 [label="c1 <= -0.58\ngini = 0.49\nsamples = 64\nvalue = [46, 57]\nclass = 1", fillcolor="#d9ecfa"] ;
197 -> 198 ;
199 [label="gini = 0.0\nsamples = 12\nvalue = [16, 0]\nclass = 0", fillcolor="#e58139"] ;
198 -> 199 ;
200 [label="c7 <= -0.04\ngini = 0.45\nsamples = 52\nvalue = [30, 57]\nclass = 1", fillcolor="#a1d1f3"] ;
198 -> 200 ;
201 [label="gini = 0.0\nsamples = 6\nvalue = [13, 0]\nclass = 0", fillcolor="#e58139"] ;
200 -> 201 ;
202 [label="c5 <= -0.13\ngini = 0.35\nsamples = 46\nvalue = [17, 57]\nclass = 1", fillcolor="#74baed"] ;
200 -> 202 ;
203 [label="gini = 0.0\nsamples = 3\nvalue = [5, 0]\nclass = 0", fillcolor="#e58139"] ;
202 -> 203 ;
204 [label="c6 <= 0.09\ngini = 0.29\nsamples = 43\nvalue = [12, 57]\nclass = 1", fillcolor="#63b2ea"] ;
202 -> 204 ;
205 [label="c4 <= 0.17\ngini = 0.19\nsamples = 40\nvalue = [7, 57]\nclass = 1", fillcolor="#51a9e8"] ;
204 -> 205 ;
206 [label="gini = 0.0\nsamples = 22\nvalue = [0, 40]\nclass = 1", fillcolor="#399de5"] ;
205 -> 206 ;
207 [label="c2 <= 0.33\ngini = 0.41\nsamples = 18\nvalue = [7, 17]\nclass = 1", fillcolor="#8bc5f0"] ;
205 -> 207 ;
208 [label="c4 <= 0.22\ngini = 0.31\nsamples = 16\nvalue = [4, 17]\nclass = 1", fillcolor="#68b4eb"] ;
207 -> 208 ;
209 [label="gini = 0.0\nsamples = 1\nvalue = [2, 0]\nclass = 0", fillcolor="#e58139"] ;
208 -> 209 ;
210 [label="c1 <= -0.34\ngini = 0.19\nsamples = 15\nvalue = [2, 17]\nclass = 1", fillcolor="#50a9e8"] ;
208 -> 210 ;
211 [label="gini = 0.0\nsamples = 14\nvalue = [0, 17]\nclass = 1", fillcolor="#399de5"] ;
210 -> 211 ;
212 [label="gini = 0.0\nsamples = 1\nvalue = [2, 0]\nclass = 0", fillcolor="#e58139"] ;
210 -> 212 ;
213 [label="gini = 0.0\nsamples = 2\nvalue = [3, 0]\nclass = 0", fillcolor="#e58139"] ;
207 -> 213 ;
214 [label="gini = 0.0\nsamples = 3\nvalue = [5, 0]\nclass = 0", fillcolor="#e58139"] ;
204 -> 214 ;
215 [label="c8 <= 0.07\ngini = 0.15\nsamples = 32\nvalue = [44, 4]\nclass = 0", fillcolor="#e78c4b"] ;
197 -> 215 ;
216 [label="gini = 0.0\nsamples = 28\nvalue = [40, 0]\nclass = 0", fillcolor="#e58139"] ;
215 -> 216 ;
217 [label="c4 <= -0.07\ngini = 0.5\nsamples = 4\nvalue = [4, 4]\nclass = 0", fillcolor="#ffffff"] ;
215 -> 217 ;
218 [label="gini = 0.0\nsamples = 2\nvalue = [4, 0]\nclass = 0", fillcolor="#e58139"] ;
217 -> 218 ;
219 [label="gini = 0.0\nsamples = 2\nvalue = [0, 4]\nclass = 1", fillcolor="#399de5"] ;
217 -> 219 ;
220 [label="gini = 0.0\nsamples = 15\nvalue = [23, 0]\nclass = 0", fillcolor="#e58139"] ;
182 -> 220 ;
221 [label="c4 <= 0.06\ngini = 0.39\nsamples = 56\nvalue = [71, 26]\nclass = 0", fillcolor="#efaf82"] ;
181 -> 221 ;
222 [label="c8 <= 0.16\ngini = 0.3\nsamples = 47\nvalue = [67, 15]\nclass = 0", fillcolor="#eb9d65"] ;
221 -> 222 ;
223 [label="c2 <= 0.2\ngini = 0.19\nsamples = 40\nvalue = [66, 8]\nclass = 0", fillcolor="#e89051"] ;
222 -> 223 ;
224 [label="c2 <= 0.16\ngini = 0.49\nsamples = 9\nvalue = [11, 8]\nclass = 0", fillcolor="#f8ddc9"] ;
223 -> 224 ;
225 [label="gini = 0.0\nsamples = 4\nvalue = [11, 0]\nclass = 0", fillcolor="#e58139"] ;
224 -> 225 ;
226 [label="gini = 0.0\nsamples = 5\nvalue = [0, 8]\nclass = 1", fillcolor="#399de5"] ;
224 -> 226 ;
227 [label="gini = 0.0\nsamples = 31\nvalue = [55, 0]\nclass = 0", fillcolor="#e58139"] ;
223 -> 227 ;
228 [label="c4 <= -0.01\ngini = 0.22\nsamples = 7\nvalue = [1, 7]\nclass = 1", fillcolor="#55abe9"] ;
222 -> 228 ;
229 [label="gini = 0.0\nsamples = 6\nvalue = [0, 7]\nclass = 1", fillcolor="#399de5"] ;
228 -> 229 ;
230 [label="gini = 0.0\nsamples = 1\nvalue = [1, 0]\nclass = 0", fillcolor="#e58139"] ;
228 -> 230 ;
231 [label="c2 <= 0.41\ngini = 0.39\nsamples = 9\nvalue = [4, 11]\nclass = 1", fillcolor="#81c1ee"] ;
221 -> 231 ;
232 [label="gini = 0.0\nsamples = 3\nvalue = [4, 0]\nclass = 0", fillcolor="#e58139"] ;
231 -> 232 ;
233 [label="gini = 0.0\nsamples = 6\nvalue = [0, 11]\nclass = 1", fillcolor="#399de5"] ;
231 -> 233 ;
234 [label="c2 <= 0.15\ngini = 0.34\nsamples = 690\nvalue = [865, 243]\nclass = 0", fillcolor="#eca471"] ;
0 -> 234 [labeldistance=2.5, labelangle=-45, headlabel="False"] ;
235 [label="c4 <= -0.15\ngini = 0.17\nsamples = 384\nvalue = [567, 60]\nclass = 0", fillcolor="#e88e4e"] ;
234 -> 235 ;
236 [label="c2 <= -0.08\ngini = 0.46\nsamples = 80\nvalue = [89, 48]\nclass = 0", fillcolor="#f3c5a4"] ;
235 -> 236 ;
237 [label="c1 <= 0.63\ngini = 0.5\nsamples = 56\nvalue = [57, 48]\nclass = 0", fillcolor="#fbebe0"] ;
236 -> 237 ;
238 [label="c7 <= 0.08\ngini = 0.46\nsamples = 46\nvalue = [54, 30]\nclass = 0", fillcolor="#f3c7a7"] ;
237 -> 238 ;
239 [label="c2 <= -0.28\ngini = 0.37\nsamples = 39\nvalue = [53, 17]\nclass = 0", fillcolor="#eda979"] ;
238 -> 239 ;
240 [label="c1 <= 0.06\ngini = 0.47\nsamples = 18\nvalue = [10, 17]\nclass = 1", fillcolor="#add7f4"] ;
239 -> 240 ;
241 [label="gini = 0.0\nsamples = 5\nvalue = [0, 10]\nclass = 1", fillcolor="#399de5"] ;
240 -> 241 ;
242 [label="c5 <= -0.15\ngini = 0.48\nsamples = 13\nvalue = [10, 7]\nclass = 0", fillcolor="#f7d9c4"] ;
240 -> 242 ;
243 [label="gini = 0.0\nsamples = 6\nvalue = [7, 0]\nclass = 0", fillcolor="#e58139"] ;
242 -> 243 ;
244 [label="c6 <= 0.19\ngini = 0.42\nsamples = 7\nvalue = [3, 7]\nclass = 1", fillcolor="#8ec7f0"] ;
242 -> 244 ;
245 [label="gini = 0.0\nsamples = 5\nvalue = [0, 7]\nclass = 1", fillcolor="#399de5"] ;
244 -> 245 ;
246 [label="gini = 0.0\nsamples = 2\nvalue = [3, 0]\nclass = 0", fillcolor="#e58139"] ;
244 -> 246 ;
247 [label="gini = 0.0\nsamples = 21\nvalue = [43, 0]\nclass = 0", fillcolor="#e58139"] ;
239 -> 247 ;
248 [label="c5 <= -0.16\ngini = 0.13\nsamples = 7\nvalue = [1, 13]\nclass = 1", fillcolor="#48a5e7"] ;
238 -> 248 ;
249 [label="gini = 0.0\nsamples = 1\nvalue = [1, 0]\nclass = 0", fillcolor="#e58139"] ;
248 -> 249 ;
250 [label="gini = 0.0\nsamples = 6\nvalue = [0, 13]\nclass = 1", fillcolor="#399de5"] ;
248 -> 250 ;
251 [label="c4 <= -0.16\ngini = 0.24\nsamples = 10\nvalue = [3, 18]\nclass = 1", fillcolor="#5aade9"] ;
237 -> 251 ;
252 [label="c2 <= -0.17\ngini = 0.1\nsamples = 9\nvalue = [1, 18]\nclass = 1", fillcolor="#44a2e6"] ;
251 -> 252 ;
253 [label="c2 <= -0.27\ngini = 0.28\nsamples = 5\nvalue = [1, 5]\nclass = 1", fillcolor="#61b1ea"] ;
252 -> 253 ;
254 [label="gini = 0.0\nsamples = 4\nvalue = [0, 5]\nclass = 1", fillcolor="#399de5"] ;
253 -> 254 ;
255 [label="gini = 0.0\nsamples = 1\nvalue = [1, 0]\nclass = 0", fillcolor="#e58139"] ;
253 -> 255 ;
256 [label="gini = 0.0\nsamples = 4\nvalue = [0, 13]\nclass = 1", fillcolor="#399de5"] ;
252 -> 256 ;
257 [label="gini = 0.0\nsamples = 1\nvalue = [2, 0]\nclass = 0", fillcolor="#e58139"] ;
251 -> 257 ;
258 [label="gini = 0.0\nsamples = 24\nvalue = [32, 0]\nclass = 0", fillcolor="#e58139"] ;
236 -> 258 ;
259 [label="c1 <= 0.88\ngini = 0.05\nsamples = 304\nvalue = [478, 12]\nclass = 0", fillcolor="#e6843e"] ;
235 -> 259 ;
260 [label="gini = 0.0\nsamples = 179\nvalue = [287, 0]\nclass = 0", fillcolor="#e58139"] ;
259 -> 260 ;
261 [label="c3 <= 0.06\ngini = 0.11\nsamples = 125\nvalue = [191, 12]\nclass = 0", fillcolor="#e78945"] ;
259 -> 261 ;
262 [label="gini = 0.0\nsamples = 95\nvalue = [156, 0]\nclass = 0", fillcolor="#e58139"] ;
261 -> 262 ;
263 [label="c2 <= -0.19\ngini = 0.38\nsamples = 30\nvalue = [35, 12]\nclass = 0", fillcolor="#eeac7d"] ;
261 -> 263 ;
264 [label="c5 <= 0.16\ngini = 0.5\nsamples = 17\nvalue = [14, 12]\nclass = 0", fillcolor="#fbede3"] ;
263 -> 264 ;
265 [label="c5 <= 0.16\ngini = 0.24\nsamples = 9\nvalue = [2, 12]\nclass = 1", fillcolor="#5aade9"] ;
264 -> 265 ;
266 [label="c1 <= 0.94\ngini = 0.41\nsamples = 5\nvalue = [2, 5]\nclass = 1", fillcolor="#88c4ef"] ;
265 -> 266 ;
267 [label="gini = 0.0\nsamples = 4\nvalue = [0, 5]\nclass = 1", fillcolor="#399de5"] ;
266 -> 267 ;
268 [label="gini = 0.0\nsamples = 1\nvalue = [2, 0]\nclass = 0", fillcolor="#e58139"] ;
266 -> 268 ;
269 [label="gini = 0.0\nsamples = 4\nvalue = [0, 7]\nclass = 1", fillcolor="#399de5"] ;
265 -> 269 ;
270 [label="gini = 0.0\nsamples = 8\nvalue = [12, 0]\nclass = 0", fillcolor="#e58139"] ;
264 -> 270 ;
271 [label="gini = 0.0\nsamples = 13\nvalue = [21, 0]\nclass = 0", fillcolor="#e58139"] ;
263 -> 271 ;
272 [label="c3 <= 0.01\ngini = 0.47\nsamples = 306\nvalue = [298, 183]\nclass = 0", fillcolor="#f5ceb3"] ;
234 -> 272 ;
273 [label="c4 <= -0.04\ngini = 0.33\nsamples = 149\nvalue = [185, 49]\nclass = 0", fillcolor="#eca26d"] ;
272 -> 273 ;
274 [label="c6 <= 0.1\ngini = 0.44\nsamples = 78\nvalue = [86, 43]\nclass = 0", fillcolor="#f2c09c"] ;
273 -> 274 ;
275 [label="c2 <= 0.23\ngini = 0.31\nsamples = 53\nvalue = [70, 17]\nclass = 0", fillcolor="#eba069"] ;
274 -> 275 ;
276 [label="c7 <= -0.07\ngini = 0.45\nsamples = 13\nvalue = [9, 17]\nclass = 1", fillcolor="#a2d1f3"] ;
275 -> 276 ;
277 [label="gini = 0.0\nsamples = 4\nvalue = [0, 9]\nclass = 1", fillcolor="#399de5"] ;
276 -> 277 ;
278 [label="c8 <= -0.04\ngini = 0.5\nsamples = 9\nvalue = [9, 8]\nclass = 0", fillcolor="#fcf1e9"] ;
276 -> 278 ;
279 [label="c5 <= -0.03\ngini = 0.32\nsamples = 6\nvalue = [2, 8]\nclass = 1", fillcolor="#6ab6ec"] ;
278 -> 279 ;
280 [label="gini = 0.0\nsamples = 5\nvalue = [0, 8]\nclass = 1", fillcolor="#399de5"] ;
279 -> 280 ;
281 [label="gini = 0.0\nsamples = 1\nvalue = [2, 0]\nclass = 0", fillcolor="#e58139"] ;
279 -> 281 ;
282 [label="gini = 0.0\nsamples = 3\nvalue = [7, 0]\nclass = 0", fillcolor="#e58139"] ;
278 -> 282 ;
283 [label="gini = 0.0\nsamples = 40\nvalue = [61, 0]\nclass = 0", fillcolor="#e58139"] ;
275 -> 283 ;
284 [label="c5 <= -0.21\ngini = 0.47\nsamples = 25\nvalue = [16, 26]\nclass = 1", fillcolor="#b3d9f5"] ;
274 -> 284 ;
285 [label="gini = 0.0\nsamples = 2\nvalue = [3, 0]\nclass = 0", fillcolor="#e58139"] ;
284 -> 285 ;
286 [label="c8 <= -0.03\ngini = 0.44\nsamples = 23\nvalue = [13, 26]\nclass = 1", fillcolor="#9ccef2"] ;
284 -> 286 ;
287 [label="gini = 0.0\nsamples = 2\nvalue = [5, 0]\nclass = 0", fillcolor="#e58139"] ;
286 -> 287 ;
288 [label="c2 <= 0.25\ngini = 0.36\nsamples = 21\nvalue = [8, 26]\nclass = 1", fillcolor="#76bbed"] ;
286 -> 288 ;
289 [label="gini = 0.0\nsamples = 8\nvalue = [0, 13]\nclass = 1", fillcolor="#399de5"] ;
288 -> 289 ;
290 [label="c6 <= 0.1\ngini = 0.47\nsamples = 13\nvalue = [8, 13]\nclass = 1", fillcolor="#b3d9f5"] ;
288 -> 290 ;
291 [label="gini = 0.0\nsamples = 3\nvalue = [0, 6]\nclass = 1", fillcolor="#399de5"] ;
290 -> 291 ;
292 [label="c8 <= -0.01\ngini = 0.5\nsamples = 10\nvalue = [8, 7]\nclass = 0", fillcolor="#fcefe6"] ;
290 -> 292 ;
293 [label="gini = 0.0\nsamples = 4\nvalue = [0, 7]\nclass = 1", fillcolor="#399de5"] ;
292 -> 293 ;
294 [label="gini = 0.0\nsamples = 6\nvalue = [8, 0]\nclass = 0", fillcolor="#e58139"] ;
292 -> 294 ;
295 [label="c8 <= -0.07\ngini = 0.11\nsamples = 71\nvalue = [99, 6]\nclass = 0", fillcolor="#e78945"] ;
273 -> 295 ;
296 [label="c3 <= -0.02\ngini = 0.34\nsamples = 19\nvalue = [22, 6]\nclass = 0", fillcolor="#eca36f"] ;
295 -> 296 ;
297 [label="gini = 0.0\nsamples = 13\nvalue = [20, 0]\nclass = 0", fillcolor="#e58139"] ;
296 -> 297 ;
298 [label="c1 <= 0.99\ngini = 0.38\nsamples = 6\nvalue = [2, 6]\nclass = 1", fillcolor="#7bbeee"] ;
296 -> 298 ;
299 [label="gini = 0.0\nsamples = 1\nvalue = [2, 0]\nclass = 0", fillcolor="#e58139"] ;
298 -> 299 ;
300 [label="gini = 0.0\nsamples = 5\nvalue = [0, 6]\nclass = 1", fillcolor="#399de5"] ;
298 -> 300 ;
301 [label="gini = 0.0\nsamples = 52\nvalue = [77, 0]\nclass = 0", fillcolor="#e58139"] ;
295 -> 301 ;
302 [label="c7 <= 0.02\ngini = 0.5\nsamples = 157\nvalue = [113, 134]\nclass = 1", fillcolor="#e0f0fb"] ;
272 -> 302 ;
303 [label="c7 <= 0.0\ngini = 0.35\nsamples = 88\nvalue = [32, 108]\nclass = 1", fillcolor="#74baed"] ;
302 -> 303 ;
304 [label="c7 <= -0.12\ngini = 0.43\nsamples = 63\nvalue = [31, 69]\nclass = 1", fillcolor="#92c9f1"] ;
303 -> 304 ;
305 [label="c5 <= -0.02\ngini = 0.06\nsamples = 20\nvalue = [1, 32]\nclass = 1", fillcolor="#3fa0e6"] ;
304 -> 305 ;
306 [label="gini = 0.0\nsamples = 19\nvalue = [0, 32]\nclass = 1", fillcolor="#399de5"] ;
305 -> 306 ;
307 [label="gini = 0.0\nsamples = 1\nvalue = [1, 0]\nclass = 0", fillcolor="#e58139"] ;
305 -> 307 ;
308 [label="c6 <= -0.07\ngini = 0.49\nsamples = 43\nvalue = [30, 37]\nclass = 1", fillcolor="#daecfa"] ;
304 -> 308 ;
309 [label="gini = 0.0\nsamples = 5\nvalue = [6, 0]\nclass = 0", fillcolor="#e58139"] ;
308 -> 309 ;
310 [label="c2 <= 0.22\ngini = 0.48\nsamples = 38\nvalue = [24, 37]\nclass = 1", fillcolor="#b9ddf6"] ;
308 -> 310 ;
311 [label="c4 <= -0.1\ngini = 0.27\nsamples = 27\nvalue = [7, 37]\nclass = 1", fillcolor="#5eb0ea"] ;
310 -> 311 ;
312 [label="gini = 0.0\nsamples = 2\nvalue = [4, 0]\nclass = 0", fillcolor="#e58139"] ;
311 -> 312 ;
313 [label="c6 <= -0.05\ngini = 0.14\nsamples = 25\nvalue = [3, 37]\nclass = 1", fillcolor="#49a5e7"] ;
311 -> 313 ;
314 [label="gini = 0.0\nsamples = 14\nvalue = [0, 24]\nclass = 1", fillcolor="#399de5"] ;
313 -> 314 ;
315 [label="c3 <= 0.27\ngini = 0.3\nsamples = 11\nvalue = [3, 13]\nclass = 1", fillcolor="#67b4eb"] ;
313 -> 315 ;
316 [label="gini = 0.0\nsamples = 2\nvalue = [3, 0]\nclass = 0", fillcolor="#e58139"] ;
315 -> 316 ;
317 [label="gini = 0.0\nsamples = 9\nvalue = [0, 13]\nclass = 1", fillcolor="#399de5"] ;
315 -> 317 ;
318 [label="gini = 0.0\nsamples = 11\nvalue = [17, 0]\nclass = 0", fillcolor="#e58139"] ;
310 -> 318 ;
319 [label="c5 <= 0.08\ngini = 0.05\nsamples = 25\nvalue = [1, 39]\nclass = 1", fillcolor="#3ea0e6"] ;
303 -> 319 ;
320 [label="gini = 0.0\nsamples = 16\nvalue = [0, 28]\nclass = 1", fillcolor="#399de5"] ;
319 -> 320 ;
321 [label="c1 <= 0.88\ngini = 0.15\nsamples = 9\nvalue = [1, 11]\nclass = 1", fillcolor="#4ba6e7"] ;
319 -> 321 ;
322 [label="gini = 0.0\nsamples = 8\nvalue = [0, 11]\nclass = 1", fillcolor="#399de5"] ;
321 -> 322 ;
323 [label="gini = 0.0\nsamples = 1\nvalue = [1, 0]\nclass = 0", fillcolor="#e58139"] ;
321 -> 323 ;
324 [label="c2 <= 0.21\ngini = 0.37\nsamples = 69\nvalue = [81, 26]\nclass = 0", fillcolor="#eda979"] ;
302 -> 324 ;
325 [label="c7 <= 0.05\ngini = 0.3\nsamples = 20\nvalue = [6, 26]\nclass = 1", fillcolor="#67b4eb"] ;
324 -> 325 ;
326 [label="gini = 0.0\nsamples = 3\nvalue = [4, 0]\nclass = 0", fillcolor="#e58139"] ;
325 -> 326 ;
327 [label="c8 <= 0.05\ngini = 0.13\nsamples = 17\nvalue = [2, 26]\nclass = 1", fillcolor="#48a5e7"] ;
325 -> 327 ;
328 [label="gini = 0.0\nsamples = 16\nvalue = [0, 26]\nclass = 1", fillcolor="#399de5"] ;
327 -> 328 ;
329 [label="gini = 0.0\nsamples = 1\nvalue = [2, 0]\nclass = 0", fillcolor="#e58139"] ;
327 -> 329 ;
330 [label="gini = 0.0\nsamples = 49\nvalue = [75, 0]\nclass = 0", fillcolor="#e58139"] ;
324 -> 330 ;
}